digraph Tree {
node [shape=box, style="filled, rounded", color="black", fontname="helvetica"] ;
edge [fontname="helvetica"] ;
0 [label="petal width (cm) <= 1.75\ngini = 0.66\nsamples = 91\nvalue = [48, 43, 59]\nclass = virginica", fillcolor="#f1eafc"] ;
1 [label="sepal length (cm) <= 5.55\ngini = 0.5\nsamples = 57\nvalue = [48, 41, 0]\nclass = setosa", fillcolor="#fbede2"] ;
0 -> 1 [labeldistance=2.5, labelangle=45, headlabel="True"] ;
2 [label="sepal width (cm) <= 2.85\ngini = 0.28\nsamples = 35\nvalue = [44, 9, 0]\nclass = setosa", fillcolor="#ea9b61"] ;
1 -> 2 ;
3 [label="petal length (cm) <= 2.3\ngini = 0.2\nsamples = 7\nvalue = [1, 8, 0]\nclass = versicolor", fillcolor="#52e891"] ;
2 -> 3 ;
4 [label="gini = 0.0\nsamples = 1\nvalue = [1, 0, 0]\nclass = setosa", fillcolor="#e58139"] ;
3 -> 4 ;
5 [label="gini = 0.0\nsamples = 6\nvalue = [0, 8, 0]\nclass = versicolor", fillcolor="#39e581"] ;
3 -> 5 ;
6 [label="petal length (cm) <= 3.2\ngini = 0.04\nsamples = 28\nvalue = [43, 1, 0]\nclass = setosa", fillcolor="#e6843e"] ;
2 -> 6 ;
7 [label="gini = 0.0\nsamples = 27\nvalue = [43, 0, 0]\nclass = setosa", fillcolor="#e58139"] ;
6 -> 7 ;
8 [label="gini = 0.0\nsamples = 1\nvalue = [0, 1, 0]\nclass = versicolor", fillcolor="#39e581"] ;
6 -> 8 ;
9 [label="sepal width (cm) <= 3.55\ngini = 0.2\nsamples = 22\nvalue = [4, 32, 0]\nclass = versicolor", fillcolor="#52e891"] ;
1 -> 9 ;
10 [label="gini = 0.0\nsamples = 20\nvalue = [0, 32, 0]\nclass = versicolor", fillcolor="#39e581"] ;
9 -> 10 ;
11 [label="gini = 0.0\nsamples = 2\nvalue = [4, 0, 0]\nclass = setosa", fillcolor="#e58139"] ;
9 -> 11 ;
12 [label="petal length (cm) <= 4.95\ngini = 0.06\nsamples = 34\nvalue = [0, 2, 59]\nclass = virginica", fillcolor="#8540e6"] ;
0 -> 12 [labeldistance=2.5, labelangle=-45, headlabel="False"] ;
13 [label="sepal width (cm) <= 3.1\ngini = 0.48\nsamples = 3\nvalue = [0, 2, 3]\nclass = virginica", fillcolor="#d5bdf6"] ;
12 -> 13 ;
14 [label="gini = 0.0\nsamples = 2\nvalue = [0, 0, 3]\nclass = virginica", fillcolor="#8139e5"] ;
13 -> 14 ;
15 [label="gini = 0.0\nsamples = 1\nvalue = [0, 2, 0]\nclass = versicolor", fillcolor="#39e581"] ;
13 -> 15 ;
16 [label="gini = 0.0\nsamples = 31\nvalue = [0, 0, 56]\nclass = virginica", fillcolor="#8139e5"] ;
12 -> 16 ;
}